// Datei: action_net_weight.txt
// Form: (64, 3)
static const float action_net_weight[64][3] = {
    {3.0791111, -1.6824418, -1.3918417},
    {3.0077863, -0.0606781, -3.1842942},
    {1.9626199, -0.5687182, -1.5583819},
    {1.7905484, -1.3934569, -0.2727225},
    {1.3863158, -0.0233887, -1.4886174},
    {1.4265486, -0.0455379, -1.3233154},
    {-0.7698901, -0.0318003, 0.7146707},
    {0.4372698, 1.3508325, -2.1854761},
    {3.6940444, 0.2994959, -4.4438448},
    {1.0926216, -0.0449367, -1.2261400},
    {2.9668043, -0.7521122, -2.3644505},
    {2.3381011, -0.6827104, -2.0122828},
    {-0.1553103, -1.1904415, 1.7202259},
    {-0.7470844, -1.2775410, 2.3978081},
    {0.9017130, -0.5107611, -0.4860977},
    {-0.9518414, 2.3625240, -1.7191054},
    {1.0614219, -1.3429236, 0.4699952},
    {1.2458400, 0.1833381, -1.8100486},
    {-0.8162444, 0.7231962, -0.0239660},
    {-3.0360308, 0.1177897, 3.2865167},
    {4.7819910, -4.3027830, -0.1207203},
    {1.6087835, 0.2255442, -2.1534073},
    {-1.9704398, -0.3144761, 2.7827165},
    {-0.7268865, -2.6132703, 4.0316205},
    {1.4358126, -2.3218975, 1.1678681},
    {0.3252931, 0.2991748, -0.7800031},
    {-4.3646369, 5.0976334, -0.8697518},
    {2.7287078, -4.3234577, 2.1130433},
    {-1.9802738, 0.8842248, 1.0806822},
    {-1.9056475, 1.4553535, 0.3007091},
    {0.4243043, -0.9820971, 0.9532132},
    {2.0370939, -0.8685945, -1.5289257},
    {3.5093284, -0.1210922, -3.9526687},
    {2.2186537, -0.7245423, -1.7023497},
    {-1.9408870, 1.5753399, 0.4949194},
    {-1.6602904, 0.0647498, 1.5639081},
    {1.1296850, 0.2238171, -1.2881246},
    {-0.1545187, -0.7558513, 1.1381111},
    {1.9144101, -3.4964902, 1.9390979},
    {2.6789820, -0.4862327, -2.6629281},
    {1.3219594, 0.5310509, -2.2832763},
    {0.4682489, -2.9552653, 3.2442932},
    {1.2183477, -1.1171211, -0.0366027},
    {-0.0697481, 1.3262266, -1.3987514},
    {-1.2665749, -0.6243228, 2.1529772},
    {-4.7745371, 1.3168019, 3.6090815},
    {0.2949060, -0.8791754, 0.4239193},
    {1.1738473, 0.4227744, -1.9479048},
    {-0.2979802, -1.2070311, 1.7857158},
    {-1.8798118, 3.0558257, -1.7257038},
    {-1.7351828, 0.7287489, 1.0276841},
    {2.8695793, -0.3590578, -2.6875446},
    {2.2896104, -0.2568643, -2.2884526},
    {1.8964577, -1.1174852, -0.7121034},
    {-0.6703451, 0.6877670, -0.3571929},
    {-4.3964934, 2.8167350, 1.3249872},
    {0.7717643, 0.2818886, -1.0125996},
    {5.5479894, -6.5200076, 1.7665392},
    {-0.7304768, -1.7220815, 2.8545110},
    {-2.0874748, -0.6775318, 2.8954322},
    {-0.7765871, 0.0544830, 0.8922840},
    {-1.1736536, -0.8036290, 2.5393360},
    {2.1121645, 0.3726784, -3.1008708},
    {1.3421338, -0.2980668, -1.0103630}
};
