// Datei: mlp_extractor_policy_net_0_weight.txt
// Form: (4, 64)
static const float mlp_extractor_policy_net_0_weight[4][64] = {
    {-0.0915255, 0.0357983, -0.1349836, -0.3534790, -0.3032997, 0.0724634, -0.0222524, -0.0451327, 0.0923819, -0.1425945, -0.1733716, 0.0038946, 0.0941517, -0.1641936, 0.0058237, 0.4978197, -0.0389777, -0.0154469, -0.4380544, -0.3256080, 0.0418591, 0.0188230, -0.9494447, 0.8010525, 0.1193175, 0.2604363, 0.0792013, -0.2469330, 0.6716931, -0.4944981, -0.2093166, 0.4048196, -2.1842525, -0.0680474, -0.0848661, -0.0243832, -0.0528880, -1.3386223, -0.9465839, 0.1661187, -0.8404468, -0.0801235, 0.1424985, 0.6910992, -0.1337456, -0.0512597, -0.0536032, -0.1385638, -0.4835453, 0.1397732, 0.6159511, -0.0382829, 0.2207330, 0.0139476, 0.0865690, 0.3737276, -0.1078439, -0.0249102, -0.2021796, -0.2858001, 0.0967539, 0.2047984, -0.1051797, 0.0732452},
    {-0.0543096, 0.5848977, 0.9142272, -1.3771324, -0.3344193, 0.0090451, 1.2393686, -0.4025675, -0.0378273, -0.2580722, -0.3142797, 0.9158313, 0.0746462, 0.1043762, -0.3853376, -0.1987296, 0.0444239, 1.1176486, -0.7711391, -0.1190105, 0.1903292, -0.0159278, -0.3111216, 0.2704721, 0.0125807, 0.3587518, -0.0727729, -0.3446520, -0.0872676, -0.1780085, -0.9298980, 0.4401118, -0.6360257, -0.0441068, -0.0904311, 0.1939212, -0.1259891, -0.2695051, -0.7919700, 0.4079439, -0.4580097, -0.0036609, 0.7734322, 0.4654482, -5.6935658, -0.1276764, -0.1282726, -0.1482796, -0.4911461, 2.5962679, 1.3183781, 0.1908506, 0.2649470, 0.0099465, 0.0636332, -0.0050508, -0.0274482, 0.0122292, 0.4972581, -0.2196243, 0.0629882, 0.5349255, -0.2847032, -0.3985799},
    {-0.4698435, -3.8436120, -0.3719326, 0.9851522, -1.2313750, 0.2391216, -0.0654912, 0.2239746, 5.2077856, 4.0780020, 1.5156776, -0.0615348, -3.1377025, -3.9919648, 0.3330292, -0.7097183, 3.3977561, -1.3750993, -1.2048404, -1.3631251, 3.4478655, 0.3628182, -1.5393811, 0.0765222, 0.1558008, 2.7950549, -4.7706838, -0.2347728, 0.0504509, -1.2637300, 0.6165692, 1.8556079, 0.3276670, -3.9393861, 3.7289691, -4.6844463, 4.2858529, -1.1937624, 2.8468349, 0.4463634, 1.3433022, -1.8182604, 0.8191778, -1.2176993, 0.4483883, 5.9986720, 4.7235937, -0.0354391, 2.1183863, 0.6241302, -0.0401506, -4.6865125, -4.8768606, -0.4994954, -4.3075376, 1.1116970, 5.6860228, 2.7506533, -1.3218033, -3.1078761, -3.7144406, 0.7560265, -4.7680254, -0.4629976},
    {-0.0747890, -0.4968394, 0.2314611, 0.8105850, -0.0017333, -0.2832599, -0.6392098, -0.1846066, 0.2616892, 0.5819747, 0.5374440, -0.8538897, 0.3085989, -0.4775788, 0.1222987, -0.1272701, -0.2602351, -0.3872530, -0.2387905, -0.0739823, -0.3401904, -1.2016374, -0.0731784, 0.0776430, 0.2526401, -2.7228506, -0.0881123, 0.1075021, 0.2173987, -0.0097298, 0.2304733, -0.4719469, 0.1342310, -0.4208864, 0.5157921, -0.5067231, 0.5142378, 0.2140484, 0.6609559, -0.2724388, 0.0009421, -0.0268490, 0.2939048, -0.2327634, 0.1967668, 0.4267274, 0.6016315, -0.2786627, 0.1851945, -0.4882075, 0.3204123, -0.7121463, -0.4973372, -0.0355596, -0.3716935, 0.2663102, 0.2115663, 0.3012262, 3.7613277, 0.2984374, -0.3837286, 0.1717589, 0.9095713, -0.1162057}
};
