// Datei: mlp_extractor_policy_net_2_weight.txt
// Form: (64, 64)
static const float mlp_extractor_policy_net_2_weight[64][64] = {
    {-0.4308418, 0.5207310, -0.2462771, -0.1819294, -0.1184638, -0.4595655, 0.3308496, -0.3843640, -0.0914975, -0.3760118, -0.2352179, -0.2990271, 0.0956240, 0.4196164, 0.5483261, -0.5954691, 0.0480917, -0.3560760, 0.2703527, -0.5707048, 0.0338113, -0.1419458, -0.0516919, -0.1978484, 0.4039648, 0.3344969, 0.0936764, 0.1428016, -0.3783546, 0.0587054, 0.3221657, 0.3119009, -0.3570065, 0.0402223, 0.0120822, -0.2981539, -0.4592999, -0.2640159, -0.2725748, -0.2660914, 0.2415091, -0.2612250, -0.2572001, 0.3587389, 0.6625102, -0.0653328, 0.1794557, -0.0156833, 0.2947341, 0.0471811, 0.0961610, -0.0632536, -0.1904122, -0.1159987, 0.0232733, 0.1559354, -0.0724174, 0.0068236, -0.1213692, -0.1245062, -0.0037335, -0.1797511, 0.4646885, 0.3704652},
    {0.7076869, 1.1018788, -0.5723125, -0.0488610, 0.6143667, -0.5237580, -0.1833508, 0.0903781, -1.2819252, -0.3165174, -0.3475207, 0.2257208, 0.4006066, 0.6304951, -0.7131153, -0.8318391, 0.7417021, 0.0698670, -0.0459393, -0.3703389, -0.6600372, -0.0160541, -0.1459378, 0.1738846, 1.0461297, 0.1126665, 1.1219242, 1.1662790, -0.1659266, 0.1101418, 0.3367554, -0.2000766, 0.2371659, -0.3917181, -0.6446671, -0.2351442, 0.5490531, 0.4974725, -1.3959790, 0.6095937, 0.2801234, 0.0865979, 0.4731167, 0.7122136, 0.0377897, 1.2298771, -0.6972574, -0.7986415, 1.2706569, 0.5347124, 0.2344051, 1.1924145, -0.5050414, 0.1785632, 0.6370313, 1.1087093, 0.3258176, 0.6667050, 0.6183015, -0.5196217, 1.6355985, -0.2838892, 0.4366778, -0.1832269},
    {0.4487291, 0.0822630, -0.6001010, 1.1478044, 0.5037422, 0.5758031, 0.4259789, 0.8390014, -0.6231347, -0.8396674, -0.2918018, 0.5180637, 0.0626630, -0.4861548, -0.5568728, -0.7288780, 0.9370714, 0.3775634, 0.7368520, -0.0161289, 0.1034597, -0.1979354, 0.9123497, -0.6418095, 0.4809285, 0.2726265, 0.1719921, 0.5726249, 0.6698398, 0.1157672, -0.8550726, -0.0288803, 0.4094793, 0.9521011, -0.0134610, -0.4910895, 0.9685343, 0.8085729, 0.3824937, -0.0371232, -0.7758234, -0.3234575, -0.3394388, -0.2080466, 0.4261772, 0.0128395, -0.8401764, -0.3882183, 0.7599182, -0.1524334, -0.0783316, 0.1328514, -0.2832202, -0.0033651, -0.5437850, 0.2285922, 0.2903982, 0.0836698, 0.1924051, -0.0730164, 0.4907980, -0.3782948, 0.0827722, 0.4914006},
    {0.5768493, -0.1628480, 0.0304824, 0.1181479, -0.0986284, -0.5382586, 0.2318621, -0.1095480, 0.4853165, -0.0120404, 0.0600120, 0.5808944, -0.4805790, -0.3746217, 0.8230456, -0.3792233, -0.0968672, -0.0366672, -0.3108352, 0.3094086, -0.0785400, -0.7458942, -0.9561648, 0.0893791, -0.1984837, 0.5064284, 0.0635727, 0.4979591, 0.1492250, 0.2620942, 0.5745847, 0.4354959, -0.5625207, 0.6710443, -0.2048222, 0.1478339, -0.4865194, 0.4994277, -0.0059748, -0.1990130, -0.1651253, 0.8453733, -0.7416394, 0.0422542, 0.3547643, 0.0655521, 0.4498967, -0.1154785, -0.4241154, -0.7980793, 0.2403196, 0.5047366, -0.3198074, 0.5512724, 0.0549888, 0.0636292, -1.1437371, -0.3654334, 0.1802106, -0.2887207, -0.3373141, -0.4989930, -0.4786463, 0.4989634},
    {0.4024200, 0.6653678, -1.0137751, 0.7709017, -0.6007124, -0.7265096, -0.0372042, -0.8009567, 0.4219834, 0.0245228, -0.8933923, 0.1021481, 0.3004694, -0.0606066, -0.2985756, -1.1490818, -0.4232930, -0.0252459, 0.1377347, -0.9309977, -0.3414588, -0.0060300, 0.2422537, -0.3704388, -0.2075469, -0.1820532, 0.8913996, -0.0383553, 0.1846925, -0.3780519, -0.0038815, -0.4542514, -0.7630603, -0.0268240, 0.4968022, -0.0842634, -0.5487975, 0.4616943, -0.6417373, -0.3822475, -0.8907643, 0.4192622, -0.1546187, 0.5282308, 0.4924903, -0.3583097, 0.2746830, 0.0541503, 0.0175369, 0.5914503, -0.1937583, -0.1602640, -0.5451422, 0.4187890, -0.0042060, 0.1818476, -0.2100199, 0.8244933, 0.0018982, -0.1383726, 0.1207555, 0.3926722, -0.0561225, 0.4582082},
    {-0.2513941, -0.7487600, 0.7107948, -0.1421888, -0.2083449, -1.1650680, -0.4851677, -0.0779026, -1.3372315, -0.1462526, -0.2676748, 1.5312577, 0.0640649, -0.0491541, -0.8071280, 0.3850591, -0.3537505, -1.3638173, 0.5998825, 0.9011356, 1.1103350, -1.6848241, 0.4240081, 0.4676594, -0.1485197, -0.3907112, 0.0025070, 0.7383894, -0.6205231, 1.0241724, -0.2206404, 1.0247929, -1.7587237, -0.9006658, 0.0038564, -0.0622162, -0.1247631, 0.2386634, 0.4671884, -1.2388788, -0.7929870, -0.8175097, -0.8644420, -0.1575508, -0.4396308, 1.7976867, 0.0524185, -0.7763303, 0.3207509, -0.0543127, 0.7094762, -0.7294572, 0.7082769, -0.8946343, -0.8668935, 1.0342916, -0.1259188, -1.1305898, 1.1942208, 0.4716331, -0.0605477, -0.0538992, 0.8289063, -0.6815737},
    {-0.7346354, 0.8423321, -0.5579822, 0.3765982, 0.3173413, 0.0694171, 0.7897837, -1.1058195, 0.2398461, -0.4045451, 0.1282249, -1.2839153, -0.3762326, 0.0322636, -0.8358598, 0.1603548, -1.3357558, -0.1042840, 0.2073575, -0.8613293, -0.2326857, 0.6673985, -0.2770729, 0.0077029, 0.1314048, -0.1879493, 0.2720044, -1.5042478, -0.0325296, 0.2915539, 0.5824108, -0.4232622, -0.0764322, 0.0100060, 0.3659303, -0.7022199, 0.7222891, -0.0920747, 0.0589685, -0.5348384, -0.0799049, 0.3285383, -0.1908344, 0.1542768, -1.5135461, -0.4419059, -0.1592935, -0.0033846, -0.7536482, 0.7301565, -0.7399309, 0.2980534, 0.2135634, 0.2804388, 0.5183910, -0.3542910, 0.5948458, 0.1596575, -0.8366928, -0.0979257, 0.2515207, 0.6809638, 0.3200801, 0.1613185},
    {0.7099023, 0.2335856, -0.8641839, 0.5603101, -1.0842897, -0.9138555, -0.0275054, -0.8614228, -0.4254385, 0.3686318, -0.9444485, 0.3700533, 0.6516851, 0.3612688, 0.3317582, -1.2104808, -0.1198372, 0.0344893, -0.2405803, -1.9082311, -0.2643504, -0.0342831, -0.8291524, -0.8877221, 0.0923095, -0.3588243, 0.7974604, 0.4919853, 0.2280958, -0.5533057, 0.8955786, -0.3099527, -0.3968974, -0.2436122, 0.7654209, 0.1384101, -0.6817401, 0.6856144, -0.5698814, -0.5409671, -0.6124189, 0.4045417, 0.3406774, 0.5271266, 0.6015427, 0.1526775, -0.0742861, 0.0342983, 0.2675230, -0.1449466, -0.2268858, -0.2392168, -0.6556183, 0.2861642, 0.1909126, -0.0236456, -0.3100554, 0.0631976, -0.7863328, -0.3617458, -0.1980193, 0.5209194, -0.8703614, 0.9430843},
    {-2.1492682, -0.5628103, -1.0632507, 0.4980322, 0.2047368, -0.5651070, 0.3694857, -0.5211890, 2.2862039, 0.0599425, 0.2463630, -0.1105301, 0.4178263, -2.2019246, 0.1325447, 0.6969274, -0.9872966, -0.0863776, 0.5214576, -0.7890870, -0.0467808, 0.5232518, -1.4704030, -3.2913294, -1.5357988, 0.0840660, -1.4927008, -2.0947247, 0.3315076, 0.4726334, 0.4280463, -0.6303130, -0.9878902, 0.0182272, 1.5468049, -2.2313752, -0.1557294, -0.7105029, -0.1812812, -1.5017442, -0.1738876, 0.3694699, -0.7654314, 0.3662524, 0.2853014, -3.6716478, -0.3026360, -0.2016601, -0.3640770, -1.5934777, 0.4977429, -0.9991645, -1.1057472, -0.2278688, -1.9925752, -3.0249245, -0.0435154, -1.8850561, -0.1515676, 1.3261266, -1.1257842, 1.0248846, -1.7395829, 0.6399091},
    {-0.4991216, 1.2644300, -0.3339065, 0.1374825, -0.1502966, -0.4563242, 0.0561007, -0.3826627, 1.2576303, 0.7257405, -0.5248495, -1.1609422, 0.9002474, -0.9168491, -0.4316401, 0.0398005, 0.2171622, 0.0252509, -0.0596958, 0.0006411, -0.5514515, -0.1531459, -0.3161716, -1.8485402, -1.5365739, 0.3990081, -1.0219463, -1.2962285, 0.4781887, -0.5432351, 0.1357744, -0.8276922, -2.1169913, 1.1446743, 0.9845642, -0.7907119, -0.3216840, 0.7346758, -0.1908518, -1.4690257, -0.8347801, 1.5421993, -0.1926304, -0.2531478, -0.1396612, -1.7046946, 0.1738456, 0.2833108, -0.0456011, -0.3696255, 0.1597722, 1.0569556, -0.5128046, 0.2690879, 0.4248079, -0.7566784, -0.2234509, 0.0818902, 0.0105235, -0.8149723, -0.3037234, 1.0120163, -1.3547239, 0.1401659},
    {-0.8964557, 1.1336262, 1.0828128, -0.0462113, -0.0641789, -0.6119084, -0.1923607, 0.4083800, 1.3470914, 0.0962351, -0.3360736, -1.0912539, 1.0459020, -0.2857139, -0.0342620, -0.2239136, 0.2949575, 0.6409193, 0.0199576, -0.4091778, -1.6604836, 0.6233402, -1.9019666, -1.2969550, -1.1340929, 0.4190304, -0.3418111, -0.6775199, 1.5759728, -0.5501827, 0.1575979, 0.1676619, -1.0702230, 1.8966701, 1.2359064, -0.1586792, -0.1253372, 0.0038227, -0.4702393, -0.8126259, -0.5995330, 1.3747420, -0.3806218, 0.3325923, -0.9242282, -0.7824356, -0.8090654, -0.2116946, -0.8843712, 0.0554640, -0.2182514, 0.9880175, -0.1605569, 0.7008471, 1.2745459, -1.2347697, 0.0528128, 0.6791458, -0.0938106, -0.9282771, 0.7273188, 0.1393255, -1.5425295, 0.4708000},
    {-0.1634874, 0.0271384, -0.0078764, -0.8105235, -0.5409077, -0.1260817, 0.2644196, -0.2024025, -0.0368679, 0.6703783, 0.5631099, -0.3502541, 0.0471308, -0.5100031, -1.3757203, -0.1063904, -0.3163588, -0.9662794, 0.5096736, 1.0160398, 0.0933184, -0.2696605, 0.5494031, 0.2842744, 0.0007418, -0.9164529, 0.1919086, -0.9686184, -0.3574737, 0.1937161, -0.1399968, -0.4199316, -0.4332529, -0.1645739, 0.2074476, 0.5194128, -0.0766245, -0.7192762, -0.2330588, -0.2279404, 0.1222691, -0.2571279, -0.5116225, 0.3380661, 1.5850583, 0.2023097, -0.1678497, 0.2138974, -0.5359423, -0.8314899, -1.1062920, 0.4990693, 0.0174878, -0.6424110, -0.1150158, -0.5018012, 0.7767646, -0.0081034, 0.0779388, -0.3016964, 0.9276538, 0.6885032, -0.1314009, -0.2553944},
    {1.7138798, 0.3768658, -0.4499031, -0.1986466, -0.3074130, -0.1078531, 1.2218907, 1.1206837, -0.5724341, -0.9681082, -0.6999236, -1.4539750, 0.6052849, 0.8772838, -1.2117923, 0.7782125, 0.3313872, 0.0858270, -0.8057035, 1.3818088, -0.3547109, -1.2011000, 0.2421193, 0.7192921, 0.1803850, 0.2115408, 0.3371125, 0.3301440, 1.2169648, -0.3354292, 0.1714474, 0.8552101, -0.7028296, 0.0368642, -0.2322704, 0.6901331, 0.6598248, 0.3535337, -1.1057758, 1.1335303, -1.1618986, 1.7318373, -1.1366235, 0.4160058, -0.1572772, 1.2523613, -1.0560492, -1.3830525, 0.6382437, 0.8435323, 1.2227116, 0.3954267, -0.9049348, -0.7661637, 0.7827483, 0.0240754, -0.4598621, 0.4748673, -1.7164178, -0.3945330, 0.2514049, -1.7779161, 0.1521580, -0.7282629},
    {0.7581361, 0.2450643, 0.2521093, -0.6076427, 0.6471559, 0.0657817, -0.6204604, 0.8099427, -1.4467744, 0.0683096, -0.2970242, 0.3989871, -0.6535704, 0.2734286, 0.4247241, -0.2876382, 0.9968718, -0.4201627, -0.5350351, 0.1521367, -1.3769692, 0.4515410, -0.4017930, 0.5964294, 0.7575299, -0.0880024, 2.1530929, 1.8067845, -0.4500198, -0.5261136, 0.0039361, 0.6416770, 0.4236335, 0.5242857, -1.1423564, 0.9981777, 0.0993522, 1.1181993, -1.7869167, 0.8794299, 0.1692403, 0.0826048, 0.3085216, 0.5244462, -0.3998891, 1.4065696, -0.2993484, 0.1633361, 1.0875115, 1.8326559, -0.4377309, 0.3957318, -0.4042691, 0.4959082, 0.8844981, 1.7691619, -0.3976215, 1.1258341, 0.6161875, -0.2107419, 0.9958539, -0.0839615, 0.4969514, 0.3614782},
    {-0.5402494, 0.4036062, -0.0249019, -0.0193769, -0.4978738, 0.2020537, -0.1596302, 0.5130855, 0.8422847, -0.2629642, 0.0976519, -0.1935306, 0.1788525, 0.2337208, 0.1986924, 0.0366548, -0.0150431, 0.6353070, 0.0970621, -0.1879904, -0.0955179, 1.6258138, 0.4451545, 0.4814717, 0.1158937, 0.0868645, 1.1137913, -0.4732118, -0.1032038, -0.7947233, 0.1429913, -0.9577216, 0.8620934, -0.3715999, 0.7999198, -0.2528907, 0.2497428, -0.6483673, -0.2546795, 0.3071479, 0.4794788, 0.0028360, 0.4899891, -0.0673040, -0.9744356, -0.4500137, -0.2169090, 0.9463683, -0.0995523, 0.4505908, -0.7143478, -0.3712922, 0.1170498, 0.2500859, 0.6492821, 0.3021850, -0.0277971, 0.7647094, -0.5083796, 1.0430677, -0.1167270, 0.0125320, -0.6062456, 0.1537064},
    {0.1983813, 0.2306248, -0.0573277, -0.5842894, 0.0162274, 0.2067850, -0.0700299, -0.3574385, -0.1267088, 0.3177161, -0.1598409, -0.0317046, -0.4342855, 0.4838116, 0.5732988, 0.1047408, -0.1460817, -0.6463777, 0.0383409, 0.2395306, -0.2354257, -0.4493765, 0.8016775, -0.2099932, 0.3919859, -0.4952455, 0.2310174, -0.0102714, -0.0110149, 0.0166087, 0.0568912, 0.4373829, -0.0830938, -0.2883787, 0.0731624, -0.1335646, -0.4292433, 0.3444678, 0.3927430, -0.1234182, 0.0543234, 0.2156518, 0.1487592, -0.0456413, -0.6017187, 0.2741696, 0.8527907, -0.0033990, -0.3467987, -0.1287758, 0.3216788, 0.0133433, 0.5028840, -0.5376567, 0.0480150, -0.2048440, 0.1727275, 0.0334122, 0.5090759, -0.0171680, -0.3934145, -0.2091298, 0.7274755, 0.4141754},
    {-0.4731643, 0.0510396, -0.1651234, 0.8341001, -0.3610274, -0.2683197, -0.4743769, -0.3994618, 0.5206322, 0.4203878, -0.4909608, 1.0911654, -0.1666203, -0.9200064, 0.2922105, -0.3687783, -0.3510109, -0.4472430, 1.0450194, -0.9918117, 0.3132332, 1.0794442, -0.4528311, -1.2661539, -0.4116833, -0.0082601, -0.7180118, -0.2579883, -0.7509311, 0.0830914, -0.5953229, -0.7879579, 0.0181737, 0.3706065, 0.0045666, 0.0071661, -0.2875299, -0.6967486, 0.2298998, -0.5231980, 0.3797501, -1.1449933, -0.1685418, 0.0085486, 0.1698297, -0.9680890, 0.4805374, 0.6667476, -0.8358878, -0.3617738, -0.4111519, -0.2682765, -0.0314224, 0.9435707, -0.6256185, -0.7931463, 0.3448007, -0.2781665, 1.0861489, -0.2572264, -0.1793663, 1.2131900, -0.5837498, 0.9565009},
    {0.3278674, -0.3979943, 0.1189922, 0.2566665, -0.0868215, 0.1151071, 0.1048564, 0.6528524, -0.1192412, -0.3047517, 0.2184161, 0.3922638, 0.7511349, 0.7330118, 0.6162075, 0.1412802, 0.8135162, -0.5524495, -0.6875564, 0.0164232, -0.6158626, -0.0632985, 0.0560132, -0.4201702, 0.3061351, -0.7565743, 0.3679610, 1.0069482, -0.0575516, 0.5032926, -0.2169496, 0.4916187, 0.0198729, -0.4614564, -0.0094116, -0.2013007, 0.7497827, 0.5065457, -0.3931112, -0.4394671, 0.0913447, -0.2964556, -0.0637224, -0.2876997, 0.2895204, 0.0845512, 0.0369632, 0.1374626, 0.6798944, 0.5485500, 0.1298751, -0.1766445, 0.1372398, -0.1229796, -0.4649687, -0.3069212, 0.8930932, 0.5910488, 0.2423604, -0.0383730, 1.0288531, -0.2847324, -0.2419996, -0.5090420},
    {-0.4015073, -0.7356329, 0.1059805, -0.5309142, -0.2140732, -0.2756003, 0.3952270, -0.1444481, 0.0204913, 0.1644833, -0.1227981, 0.1811802, -0.2895568, 0.4518967, 0.2063967, 0.5503273, 0.1841082, -0.3640190, 0.2365881, -0.0302370, -0.0432212, 0.8008909, 0.5208499, 0.1430736, 0.3795159, -0.4740105, 0.1515300, 0.2592933, -0.1576585, 0.4508452, -0.1001734, 0.0216469, -0.8651622, -0.2535435, -0.4498384, -0.1325738, -0.8922363, 0.1563001, 0.0018059, -0.9018566, -0.4479018, 0.0080592, 0.0802201, 0.4321460, -0.1132112, -0.0272097, 0.3138118, 0.1122717, 0.3163508, 0.8612648, -0.1776690, -0.2334988, -0.3001255, -0.6417055, 0.3773426, -0.1154065, -0.0226089, 0.5652193, 0.3579799, 1.1066831, -0.3836202, 0.3216604, 0.0185785, -0.0284326},
    {0.0597721, 0.8787994, -0.3665255, 0.1248654, -0.7252734, -1.1869291, 0.0572662, -0.4614825, 0.3650126, -0.3835109, -0.6374100, -0.8866985, 0.4610130, 0.3560722, 0.2849028, -0.9463617, 0.1810808, 0.1106177, -0.0116202, -0.5260435, -0.4794598, 0.5187830, -0.3240921, -0.0442431, 0.1104177, -0.2263787, 0.3135189, -0.1658549, 0.3319397, 0.3623705, 0.1102361, -0.5012243, -0.3218945, 0.3846821, 0.4078471, 0.2061439, -0.7005019, 0.3470690, -0.4442788, -0.7748634, -0.9113862, 0.7004122, -0.1314281, 0.5010116, 0.3248430, 0.0295238, 0.0485972, -0.6189323, 0.2030840, 0.6090504, -0.3280668, 0.1508933, -0.5552472, -0.3845805, -0.3609503, 0.3044825, 0.0202962, 0.3295884, -0.5910449, -0.4008487, -0.2495620, 0.0111101, 0.1429686, 0.5910927},
    {-0.8317273, -0.5979286, 1.6017021, 1.1832505, 0.4729102, 0.2824316, -1.2358567, -0.8492346, 0.9229069, 1.0718591, 0.6039370, 2.0064645, 0.3612673, 0.2731609, 1.1271385, 0.0463031, 0.8281234, -0.3614634, 0.7489615, -1.4515320, 1.3061293, 0.1271141, -0.9943556, -0.9986170, -0.0946368, -0.0126402, -0.8580745, -0.4564894, -0.9049348, -0.2242992, -0.4058773, -0.8017961, 1.1466941, 0.4577676, 0.5254820, -1.3618568, 0.0434813, -0.8169805, 0.9692740, -0.6085301, 1.3008760, -2.0176065, 0.7440628, -0.8110306, 0.1129255, -0.6102357, 1.2337171, 1.0100878, 0.0241145, -1.7146420, -0.7570858, -0.9946491, -0.2034474, 0.7496355, -0.1983355, -0.0497763, 0.0355182, -1.0955100, 1.2685324, 0.4806734, -0.2998392, 1.7173046, -0.6913570, 0.9131147},
    {-1.6222453, 0.4159233, 0.1173604, -0.4377950, 0.0155713, 0.8235232, 0.3083351, -0.5606013, -0.2426058, -0.1309516, -0.0797769, -0.6151773, 0.0569656, -1.1571673, 0.3912267, 0.0117452, -0.3419092, -0.4174186, 0.5873594, 0.0453172, -0.1130622, -0.0453410, -0.1936994, -0.3375939, -0.1430979, -0.7952163, -0.2363807, 1.3147962, 0.0954993, 0.4627261, 0.0973756, 0.2060481, -0.5905924, -0.0270299, -0.0186533, -0.3825750, 0.1407272, -0.1995902, -0.4905236, 0.3317161, -0.2316157, 0.0731433, -0.1781506, -0.1558304, -0.0934019, -0.2355406, 0.1842874, -0.6983771, 0.0026904, 0.0903703, -1.1273299, 0.5391364, -0.1534543, 0.3198564, 1.0333420, -0.3147140, 0.2110077, 0.6208355, -0.2459827, -0.3644595, 0.1536251, 1.0951792, -0.1357523, 0.4756454},
    {0.2241228, -0.1790656, 0.8966905, -0.9242518, 0.3580579, 0.2854176, -0.2241713, 0.2864430, -0.2575239, 0.3622214, -0.1206971, -0.6545792, -0.4376676, 0.3273085, -0.0716271, 0.1166270, 0.3984403, 0.3023756, -0.7952851, -0.0022936, -0.5531961, 0.0379130, 0.4810911, 0.0058125, 0.2261961, 0.1223886, 0.5725461, -0.0562333, -0.5557284, -0.0086534, 0.1262609, -0.5115772, 0.1085426, 0.4607773, 0.0291038, 0.3045300, 0.2081083, 0.0356429, -0.2463987, -0.1351485, -0.1194046, 0.5596224, 0.3184662, -0.1182412, -0.5145238, -0.0366263, 0.4800228, 0.5753473, 0.2187009, 0.0348282, -0.4965062, 0.4747272, 0.4818107, -0.3768539, 0.5014873, -0.1202154, 0.1448415, 0.1560251, -0.2823232, 0.6362413, -0.0970609, 0.0218242, 0.1935844, -0.0392908},
    {0.6898707, -0.1633952, 0.0625501, -0.0616081, 0.3610209, 0.1972482, -0.2686131, -0.0187671, 0.4282249, 0.3194301, 0.3834299, 0.0844719, 0.0219268, 0.1749604, -0.6162609, 0.3087378, -0.2364673, 0.5742854, -0.5001215, 0.8774656, -0.0907313, 0.0957394, 0.3980963, 0.1476894, -0.1916702, 0.0646575, 0.0625142, -0.2787324, -0.0505773, -0.5970615, -0.9039248, 0.2325159, 0.3199031, 0.6339951, -0.5859510, -0.1451579, 0.2599590, -0.4185172, -0.0159980, 0.1245919, 0.2222177, -0.3349894, 0.2577218, -0.2711884, -0.5478572, 0.3298327, -0.1124986, 0.0270065, 0.1715465, 0.0365722, 0.0938695, 0.3327539, 0.3020242, 0.2735973, 0.3790404, -0.3490625, 0.0306951, 0.2051428, 0.2954391, 0.6323791, 0.3053831, -0.5581840, 0.5095010, -0.4251883},
    {0.1580755, -0.6750287, 1.0588007, -0.6221910, 0.4533618, 1.2208254, -0.3151070, 0.4497580, 0.2716560, 0.2021117, 2.3877354, -0.1507246, -0.7083113, 0.4897474, -0.1694956, 1.3497608, -0.0854032, -0.0611389, 0.1767360, 1.3430915, 1.0819010, 0.4994695, 1.0477686, 1.1249424, 0.6750683, 0.1372862, 0.1922455, -0.4958244, -0.5376877, 1.2301205, -0.6599158, 0.4509002, 1.8059866, -1.0215875, -0.8858693, -0.1022611, 0.6462141, -0.6975263, 1.0689356, 1.2538033, 0.3782885, -1.4676253, 0.0808786, -1.5220129, 0.0609813, 0.2296806, -0.1967234, 0.2056938, -0.1824246, -1.6928082, -0.0312173, -0.6039135, 1.6072425, -0.6866898, -0.0187566, 0.0730254, 0.0020267, -0.4659075, 0.8750160, 0.9552223, -0.8529723, 0.6107180, 1.3129995, -0.6487607},
    {0.0065942, -0.2193465, -0.3847840, 0.0850928, -2.0140345, 0.4360575, -0.4379488, -1.0609477, -0.1756478, 1.1028640, 0.0812180, 0.0943381, -0.9919337, 0.4611045, -0.6279936, -0.2583545, -0.8100421, -1.3882570, 1.4724087, 0.8648273, -0.0003128, -0.7061102, 0.5241727, 0.4772603, 0.2212765, -0.2545999, 0.1202961, -0.7750139, -0.1928406, 0.5551401, 0.2118602, -0.0155266, -0.1771643, -0.0747491, 0.4109852, -1.3119810, -1.1183648, 0.2954875, 0.1396399, -1.5186064, -0.7701776, -0.1344724, -0.0668639, -0.0179172, 2.4278531, 0.3400161, 0.5954925, 1.0753137, -0.5683135, -0.2726241, 0.3262258, -0.0230436, -0.4798006, -0.6265808, 1.9083960, 1.5393008, 0.4231016, 0.1272899, 0.6700882, -0.5160325, 0.1768248, 1.3227187, 0.5748935, -0.5615301},
    {0.3114920, 1.1101980, -0.7073509, -1.0772761, -0.5552437, 0.4857250, 0.8076136, -0.0063432, -0.1091056, -0.9194406, 0.1476188, -1.2140017, -0.5761958, 0.4065305, -1.0335830, -0.6936045, -0.2041841, -0.0230896, -0.6250812, 1.4472196, -1.9732498, -0.1345746, 0.6295844, 0.6133252, 0.4027001, 0.2802244, 1.6646636, 0.6355271, 0.5878337, 0.0696029, 0.8596843, -0.1757023, -1.4915745, 0.4915346, -0.1806571, 1.2508355, 0.3817002, 0.2911431, -1.3066024, 0.7329944, -1.0172925, 1.4239302, -0.1597447, 0.4634421, -0.4625708, 1.0357751, -0.9462347, -0.8017566, -0.2639379, 1.5900233, 0.3881024, 1.1774040, -0.0047271, -0.2744472, 1.1536382, -0.1052826, -0.5563085, 0.9067686, -1.2918651, -1.2381775, 0.1492587, -0.9750268, 0.3271751, 0.7359297},
    {-0.0466058, 0.2405682, 0.1764414, -1.1954333, 0.1971328, -0.0923485, -0.1517331, 0.3908229, -0.3492309, -0.4950720, 0.8745133, -0.5581891, -0.8904108, 0.6310341, -0.0550345, 0.5791237, -0.5924382, 0.2754108, -0.1926288, -0.2660488, 0.0730628, 0.2856010, 1.2589062, -0.1271615, -0.2157033, -0.0007328, 0.5243474, -0.3727222, -0.5740915, -0.4860015, -0.0756955, -0.1246562, 0.2666365, -0.0148689, 0.0322493, 0.0973228, -0.0606671, 0.2532315, 0.2218403, 0.0379075, -0.0901279, 0.1501838, 0.4591748, -0.1846351, -0.1313434, -0.0688770, 0.0875423, 0.3306790, -0.0328397, -0.1196794, -0.6696460, 0.1572001, 1.1516131, -0.1088796, -0.0208914, -0.3937584, 0.3643631, -0.0425759, 0.2623678, 0.0000100, -0.4777058, 0.1487497, 0.3733146, -0.1782984},
    {0.0143873, -0.3518215, 0.7384542, -0.4967697, 0.3277188, 0.5575994, -0.5158721, 0.7770147, 0.0156547, 0.0388833, 1.5017347, 0.7102590, -0.1166866, 0.6610338, -0.5047300, 0.7350799, -0.0356953, -0.0540719, -0.1203158, 1.0541301, 1.0901829, -0.0150914, 1.0940570, 0.5144076, 0.5867231, -0.0151604, -0.0793574, -0.7373588, -0.5301092, 0.7061539, -0.1245132, 0.6854754, 1.1991626, -0.6733895, 0.3152563, 0.0172292, -0.0001526, -0.1821846, 0.5500543, 0.8500426, 0.3971298, -0.7937773, 0.6210098, -1.0551361, 0.4497857, -0.3458394, -0.3876792, 0.0410419, -0.0429623, -0.9645666, -0.5561364, -0.1517138, 0.9692960, -0.5316388, 0.3196264, -0.1048994, 0.3059556, -0.5803635, 1.0739837, 0.3280358, -0.2323326, 0.5303996, 0.6391380, -0.4829484},
    {0.8451653, -0.1206250, 0.4464691, -0.4527155, 0.3505779, 0.2951706, 0.1897543, 0.3546046, 0.0781630, -0.4955960, 0.5138196, -0.3806149, -0.2025043, 0.0784203, -0.0701031, 0.7393190, -0.1552639, -0.3142270, 0.1637803, 1.0520684, 0.3295442, 0.1439820, 0.7491257, 0.4168766, 0.7767723, 0.1453047, 0.7170069, 0.1727364, 0.1149923, 0.3640618, -0.3383232, 0.4520507, 0.6704228, -0.3401482, -0.7088599, 0.2732749, 0.0364141, 0.3417511, 0.4214165, 0.3712425, 0.1568064, 0.6016694, 0.9461632, -0.5628974, -0.0598956, 0.4496157, 0.3075812, -0.0659482, -0.0688559, -0.3876561, -0.3990650, -0.0382989, 0.6973724, -1.0153559, 0.4408230, 0.2828166, 0.0379093, -0.3714954, -0.2367519, 0.6869386, -0.4047901, 0.2513976, 0.2000114, -0.5269318},
    {-0.0485671, 0.2144063, 0.4248575, -0.4107043, -0.4416739, 0.0094388, -0.4126570, -0.0008564, 0.1673435, 0.5628478, 0.1967729, -0.2919163, -1.0340083, 0.1515601, 0.0974332, 0.0642536, -0.7772931, 0.2493764, -0.1914559, 0.1096593, -0.2375914, -0.2924433, 0.2729059, -0.5033567, -0.2533883, 0.1260994, -0.3511752, -1.1681147, -0.4422066, 0.5304218, -0.6469792, -0.3639578, 0.4668728, 0.2133987, 0.0993878, 0.0511472, -0.4751790, -0.1948078, 0.2761405, 0.5105091, 0.5637227, -0.3953117, -0.1250660, -0.1396543, -0.0355965, -0.7530342, -0.1609197, 0.3205463, -1.0360204, -1.0663402, -0.0960720, -0.3822290, 0.2660605, 0.1625451, -0.2933601, -0.3149004, -0.1147896, -0.2016120, -0.4258965, 0.1487592, -0.7639107, -0.1940763, -0.0366998, 0.5621739},
    {0.4572192, -0.9086831, -0.4300524, -0.7634910, -0.3630690, 0.8450577, -0.6299360, -1.7274913, 0.2457460, 0.7081385, 0.8075662, 0.3912907, 0.2582059, 0.0980341, 0.4560094, 0.3092976, -0.4236890, -0.2751509, -0.2363195, 0.7790883, 0.9659596, -0.4200191, 0.3290435, -0.0935974, 0.3020959, -0.8155035, -0.2542666, 0.4206604, 0.6376834, 0.2896697, 0.2150219, 0.3888758, -0.0557919, -0.4657054, -0.0019043, -0.7721040, -0.7314295, -1.1191074, 0.4785574, 0.0677641, 0.4747914, -0.2411976, -0.1938959, -0.7089146, -0.4239519, -0.5706258, 0.4681489, 0.4864928, -0.2537529, -0.8605683, -0.4174202, -0.6228479, -0.0993609, -0.4140574, -0.8629227, 0.4653915, 0.7099344, -0.6332060, 0.0042202, 0.5995029, -0.1085334, -0.1107413, -0.2633588, -0.2854525},
    {0.2540096, 0.3089629, 0.0138425, 0.2270257, -0.7223183, -0.4253687, -0.0851270, -0.2684972, -0.2209461, 0.4444578, -0.5578063, -0.0968352, 0.2484656, -0.2684539, -0.0842796, -0.0563817, -0.2026322, 0.0444122, -0.2095364, 0.0359623, 0.0101990, -0.0455572, -0.1431665, 0.0867679, -0.1255130, -0.4686015, -0.5121397, -0.0504757, -0.0941851, 0.1204609, 0.3466708, -0.0975313, -0.0257868, -0.6329361, 0.0098229, -0.0476875, 0.2829779, 0.0695160, -0.2525308, 0.2824785, 0.1458370, 0.1551525, 0.2274308, -0.3630290, 0.1787592, 0.2305790, 0.4147382, -0.3236651, -0.0409163, -0.2039682, 0.3262233, 0.2928281, 0.4890278, -0.2796664, -0.3442593, -0.2691402, -0.0142414, -0.5374288, -0.3375484, 1.4106101, -0.4819085, 0.2617773, -0.4557742, 0.2559210},
    {-0.4231077, -0.5056167, 0.6626956, -0.5204266, -0.4967071, 0.5818304, -0.7777572, 0.2637957, -1.3722026, 0.2207694, 0.5708393, -0.0054801, -1.2874241, 1.4823494, 0.8783326, -0.1286662, 0.2235763, -1.2536926, 0.2887839, 0.3296654, 0.2795598, -0.0881116, -0.6459619, 0.6717381, 1.3478701, -1.0444295, 0.9959812, 0.4997235, -0.8768833, -0.3403247, -0.5455526, 0.7029273, 0.9266703, -0.3066078, -0.4141406, 0.1585395, -0.1320694, -0.1940202, 0.5996866, 0.2007718, 0.4259162, -1.1967788, 1.3076903, 0.2490603, -0.5389310, 0.4810800, 0.0210906, 1.0734302, -0.0071140, 0.9584327, -0.0825429, -1.0868783, 0.0821378, 0.3044305, 0.1371463, 1.1515206, 0.3104254, 0.4106089, -0.1632303, 0.8069953, 0.0806641, 0.4240248, 0.5125551, -0.0857331},
    {-0.4438402, -0.0851205, -0.7455489, 0.5591851, 0.2254872, -0.0899593, -0.2391477, -0.0484562, 1.7654611, -0.0139821, 0.2795255, -0.7387662, 0.8801460, -0.9154804, -0.3383800, 0.0538353, 0.2774827, 0.5451057, -0.0819870, -0.0450615, -0.0093831, 0.0171117, 0.2458446, -1.6570953, -1.7751601, 0.4150422, -0.8635751, -1.5625633, 0.8636792, 0.0482003, -0.0637640, -1.4062705, -1.0388292, 0.9964843, 1.1381320, -0.3383786, -0.2282365, -0.0857128, -0.0705640, -1.0043855, -0.1271450, 0.3425562, -0.2829349, -0.3326396, 0.3335986, -1.7467151, 0.1536468, -0.1032813, -0.7984992, -1.3494216, 0.0397355, 0.3254488, -0.0330436, 0.4602087, -0.4777297, -1.5216608, 0.2642116, -0.3213325, 0.0462478, -0.4566208, 0.0175505, 0.7090223, -0.9676923, -0.0130057},
    {1.2646137, 1.2594728, -0.1134642, -0.2048250, 0.3924389, -0.5108504, 0.1973403, 0.3374304, -1.0421604, -0.3797963, -0.9505147, 0.2032552, 0.2338302, -0.1366269, -0.1099436, -0.7666511, 0.2248185, -0.3331623, -0.3356731, 0.8367546, -3.3737717, 0.0274776, 0.4471292, 0.5474939, -0.0864382, 0.1222512, 1.9550533, 0.9610925, 0.1538927, -0.8317343, 0.4383772, 0.1092983, 0.2225337, 0.9051946, -0.0186632, 0.9524890, -0.4369314, -0.1093801, -2.5177083, 0.3843213, -0.3866123, 0.5331472, 0.1412817, 1.1491423, -0.5978184, 1.1611807, -0.5302543, 0.6618930, 0.0163780, 2.1648610, -0.4798384, 1.0808486, -0.2618722, 0.8592005, 0.7243255, 0.9959840, 0.3027365, 1.7142905, -0.7838447, -0.7755252, 0.9721680, -0.0327057, 0.1022177, 1.0443685},
    {-1.3043215, -1.4509877, -0.1851465, 0.5183642, -0.2881435, 0.4805156, 0.2366782, -0.6017026, 2.7625396, -0.6962957, 0.7979707, -0.3653364, 0.7985340, -0.9761565, -0.2483055, 0.5623832, -0.5732674, 0.6147419, 0.5245402, -0.4316526, 2.5258610, -0.1987766, 0.0536402, -1.1940424, -1.0667384, 0.8033389, -3.3241777, -2.8331835, 0.7760072, 0.5413315, -0.3509530, -0.4658054, -0.7369228, -0.5344530, 0.9469963, -1.2626750, 0.1570425, -0.4247492, 2.1442134, -1.0148447, 0.3008504, 0.3115855, -0.6641900, -0.9651396, 0.1133751, -2.7274938, 0.7247397, -0.8284773, -0.4091789, -2.6040111, 0.7681378, -0.9753959, 0.3120074, -0.9785435, -1.5105038, -2.6493738, -0.0305855, -1.9662025, 0.1285112, 1.6793519, -1.1952417, 0.3878512, -0.3943652, -0.5806188},
    {-0.1946162, -0.4628556, -0.0256110, 0.8618059, -0.2285138, 0.2550985, 0.3307289, -0.1996980, 0.1888259, -0.2180807, 0.2629112, -0.8249963, 0.5112432, 0.0336100, -1.0276518, 0.3762856, 0.5015030, 0.0970466, 0.0314869, 0.1060860, -0.0492936, 0.2245219, 0.6620365, 0.0077182, -0.0540434, 0.0282744, -0.0035394, 0.0457937, 0.5095745, 0.1847470, 0.0014659, -0.0225354, 0.1498881, -0.5030353, -0.3419682, -0.1669443, 0.2207692, 0.8670933, 0.2020563, 0.2975813, -0.3937257, -0.2091640, 0.1900979, -0.5174109, -0.1312224, -0.1570615, -0.5689040, -0.1998285, 0.5403981, 0.2146803, 0.1203165, -0.2158099, 0.2176264, -0.1438957, 0.5273495, -0.1479465, 0.3796165, 0.0934736, -0.2076472, 0.3660919, 0.3610989, -0.4185354, -0.2602977, 0.0249492},
    {0.1469028, -0.4396783, 0.1620634, 0.2166351, -0.0618541, -0.4651085, 0.3511198, 0.2589651, 0.5711837, -0.5828331, -0.4811925, -0.3565645, 0.3161121, -0.2094249, 0.3347679, -0.3961047, -0.0936996, -0.1139875, 0.6869309, 1.0284963, 0.4421911, -0.8101558, 0.1121054, 0.1860978, -0.4882102, -0.1032457, -0.6347105, 0.1682264, 0.4848441, -0.0243588, 0.2127587, -0.0466842, -0.1892119, -0.4041410, 0.3321204, -0.2042441, -0.4372647, 0.4381150, 0.9528188, -0.6665473, -0.5581580, 1.0475870, -0.4890778, -0.6077294, 0.0711206, -0.5253903, 0.0987713, -0.2519052, -0.1770672, -0.6008790, 0.8695312, -0.6451195, -0.7062585, 0.1966246, -0.5926161, -0.6966920, -0.4052031, -1.0495423, 0.1712808, 0.5263619, -0.4920602, 0.2631542, -0.3825940, -0.4531095},
    {-0.3285727, 0.5696303, -0.4484217, 0.6959876, -0.5261372, -0.1859483, 0.8144792, -0.4349932, 0.6432508, 0.5882075, -1.1880748, 0.1407611, 0.8409956, -0.4298059, 0.0179750, 0.0981175, 0.5796475, -0.1507535, 0.0333738, -1.4752017, -0.9070680, 0.4387857, -0.7324010, -1.1699888, -0.0731618, -0.5401170, -0.3757290, 0.5672202, 0.1340423, -0.4430739, 0.5120613, 0.0799855, -1.3812252, 0.1373724, 0.5791475, -0.2015965, 0.1603104, 0.0565371, -1.2312387, -0.8969121, 0.9339759, 0.7303466, -0.5333550, 0.5442653, -1.1024779, -1.1428101, 0.3050915, -0.6226050, -0.2589472, 0.0280877, 0.1111759, 0.8781944, -0.0158451, 0.8966523, 0.2620351, -0.4072683, 0.1734152, -0.1718814, -0.7175418, -0.4550697, -0.0005583, -0.3392200, -0.4829902, 1.3624101},
    {-0.4081481, -0.9051932, -0.1126268, -0.2260896, 0.2494786, -0.6739011, 0.1677958, 0.4851809, 0.1235017, -0.3121277, 0.1403577, -0.3015052, -0.8627776, 0.1833848, 0.5300087, 0.3028127, -0.5051276, 0.0373195, 0.4109384, -0.2589830, 0.4219700, 0.1314028, -0.0519815, 0.0267895, -0.1322427, 0.0170317, -0.1300791, -0.0926748, -0.2533669, 0.1112107, 0.1499498, -0.4238117, 0.0528343, -0.8515177, 0.4629293, -0.7129941, 0.2801165, -1.0439906, -0.3736265, 0.1824910, 1.0499094, -0.4437919, 0.3365744, 0.2852106, -0.0777774, -0.3254375, -0.1185342, 1.0311868, 0.1836896, -0.2048201, -0.2910783, -0.0475091, -0.0471847, 0.0595958, 0.3270063, -0.1825115, -0.0935554, -0.0985323, -0.6822266, 0.4361390, -0.4913231, 0.7584881, -0.0055088, 0.8685358},
    {0.2795272, 0.7329550, 0.2684113, 0.2516881, -0.0517854, 0.0129918, -0.1167936, -0.4188458, 0.1105524, 0.0250932, -0.4695264, -0.3012381, 0.0454603, -0.2816483, 0.2406039, -0.5507184, 0.8103271, 0.0936440, -0.3744303, 0.1276160, -0.1776811, 0.1670363, 0.5130615, 0.0689783, 0.3373266, 0.0273591, 0.0851204, -0.0808895, 0.4528522, 0.1031917, 0.6310903, -0.1659501, -0.1231576, -0.3706375, -0.5796772, 0.6012610, 0.1410998, 0.2801774, -0.2839661, -0.1824557, -0.0599459, 0.5332007, -0.0452955, 0.2640257, 0.2981972, 0.0607142, -0.0487848, -0.0549268, 0.2373058, 0.0994837, 0.2257033, 0.5679258, -0.1374609, -0.0459589, 0.0548155, 0.0791340, 0.0243573, 0.0237136, -0.5925409, 0.1080282, 0.6173229, -0.0987463, 0.6431214, -0.5657916},
    {0.9137904, -0.5157650, 0.0558323, 0.2224779, 1.0583519, 0.1847363, 0.2180907, -0.0655557, 0.5485191, -0.1138901, 0.4941042, -0.2119702, -0.1024420, -0.7330697, 0.1446823, 0.1432617, 0.5537626, 0.2019269, -0.7531437, 0.6199886, -0.0021396, 0.5031963, 0.2304870, 0.8419787, -0.0287117, 0.1818743, 0.0724846, -0.2633186, 0.0034540, -0.7258129, -0.7946076, 0.1899969, 0.5618232, 0.0905373, -1.0458416, -0.3470501, 1.2767817, 0.7755880, 0.2760109, 0.7054754, -0.2354840, -0.5944014, 0.2778452, -1.0577177, -0.6191969, -0.0575666, 0.4461195, 0.0430557, 0.5581341, 1.9995450, 0.6850154, 0.0465844, 0.3715885, 0.2652174, 0.8372711, 0.2253585, 0.0634385, 0.4490576, -0.8733245, 0.3794950, 1.2343519, -0.1341233, 0.6878649, -0.5598596},
    {0.4217565, 0.9130650, -0.6690294, -0.3231412, 0.4199160, 0.5265108, -0.7255043, 0.5493246, 0.0872927, 0.2201947, -0.6860145, -0.4118775, -0.4746942, 0.0468629, 0.7671646, -0.6518297, 0.5013347, -0.0561935, -0.2604908, -0.4472701, -0.1285630, -0.0929484, -0.0397652, 0.3782505, -0.2112349, 0.1394163, -0.2317237, 0.1742584, -0.3864137, -0.6131625, 0.5548867, 0.6313691, -0.1540074, 0.4890100, -0.1276626, -0.2311852, -0.5688887, 0.6632885, -0.4214340, 0.5391838, 0.4686799, 0.4467975, -0.1440337, 0.6831510, -0.1638176, -0.1459209, 0.2788029, -0.2556384, 0.3495573, -0.0419623, -0.1369340, 0.4116250, 0.2018974, 0.8456578, 0.4696713, 0.8935971, 0.2122013, 0.0871482, -0.5309432, -1.0343475, 0.4541601, -0.9310053, -0.3844195, 0.0319378},
    {0.0337131, -0.7002192, 0.2404265, -0.8098638, -1.2670349, -0.4913132, -1.1815960, 0.2054977, 0.4720407, 1.5590748, 0.0015792, -0.2204477, -0.7304296, 0.2067975, -0.6577670, 0.3604401, -3.3285100, 0.0698428, -0.8678057, -0.0971539, -0.0816967, -0.3745179, -0.4716208, 0.3285484, -0.1019122, 0.0156824, -1.9594289, -0.5146486, -0.6188676, -0.0654685, 0.8286710, -0.6933382, 0.1959178, -0.1021305, 0.4468700, -0.2183496, -0.5772496, -1.0858812, 0.0592264, 0.5005296, 0.9130139, 0.1739572, -0.1918006, 0.1988572, 0.4611891, -0.1758496, 0.4032484, -0.0722215, -2.4768274, -0.4215107, 0.1335551, 0.1055825, -0.0060982, -0.1752266, -0.2564677, -0.2730953, 0.1567584, -0.5166376, -0.0924351, -0.0920977, -0.5722064, 0.3809396, -0.2366686, 0.2798194},
    {-0.8731239, -1.2174590, -0.5229388, 0.3352243, -0.1911886, -0.2355556, -0.1007494, -0.3971235, -0.0267160, 0.1285831, 0.1601353, 0.3897093, 0.5332566, -0.8853469, 0.5956930, 0.0884294, -0.3315051, 0.1676905, 0.3849305, -0.0597721, 4.8260517, 0.5177377, -0.4081109, -0.2156513, 0.2558927, -0.0715041, -2.6511812, -0.2200710, 0.1262757, 1.2360798, -0.7016379, 0.5955645, -0.5318691, -0.7703327, -0.4474114, -0.6105666, -0.1123496, 0.2542319, 2.7267478, 0.0102064, 0.0761111, 0.2206078, -0.3727987, -1.4917003, 0.2159296, 0.4300395, 0.2244814, -0.7304887, -0.0917024, -1.8556882, 0.0762752, -1.5836488, -0.0830528, -0.4432205, -1.3689586, -0.2911361, 0.4025336, -2.3960006, 1.0228403, -0.1342731, -0.6105551, -0.4485201, 0.1257658, -1.0878397},
    {-0.0342978, 0.9485965, -0.5964571, 0.4825776, -0.1352547, -0.6485348, 0.7217043, -0.2583666, 2.4663372, -0.1190570, 0.0286540, -0.3358522, 0.8727737, -1.8652500, -0.7340537, 0.1198642, -0.2968471, 1.0372597, -0.0288930, 0.2501541, -0.4794249, -0.6706222, 0.2996610, -1.6306713, -1.9118716, 1.1758152, -1.7804735, -1.3312491, 1.2033511, 0.2716773, -0.0054748, -1.0943816, -1.7768192, 0.6245674, 0.9605953, -0.4388256, -0.4497270, 0.1746088, -0.7280208, -0.4444376, -0.6860471, 0.7834594, -1.0781999, -0.2835677, 0.8151602, -1.9195535, 0.3464451, -0.4280477, -0.9694697, -1.7696526, 0.6233770, 1.0894113, -0.3241977, 0.3378890, 0.3355118, -1.5973253, 0.1355755, -0.4008249, -0.0232722, -1.0124841, 0.0418916, 0.1331395, -0.9188707, 0.0024810},
    {0.3714053, 0.7953684, -1.3020146, 0.6604599, -0.5391554, -1.4873717, 0.5949970, -0.9819751, -0.2180256, -0.0445861, -1.7262183, 0.2124161, 0.2509775, -0.2768603, 0.3707001, -2.0212798, 0.4849129, 0.0159882, -0.2075290, -1.3160806, -0.8787221, -0.4006643, -0.4895967, -0.9867957, -0.6567099, -0.1402653, 0.1822313, 0.4327410, 0.4454238, -1.1108000, 0.8529583, -0.1982518, -1.4308864, 0.4130922, 0.4520839, 0.5001519, -0.4009412, 0.6139039, -0.6382024, -1.0418410, -0.7093008, 1.2364382, -0.2936185, 1.3397161, -0.1316974, 0.2175673, -0.1006766, -0.7599099, 0.8019911, 1.2667567, 0.1401434, 0.6308203, -1.7848605, 0.8025149, -0.1924730, 0.2940086, -0.0692266, 0.8138756, -1.1187575, -0.3768441, 0.3162742, -0.1965670, -1.1073107, 0.5799154},
    {0.7482080, 0.3495623, 0.1872468, -0.7536339, 0.0775450, -1.0779899, -0.2721032, -0.2080728, 0.9009156, -0.1069011, -0.2411818, -0.5860181, 0.2663502, -0.3532063, 0.5326700, 0.0263794, -0.3121309, -0.4652953, 0.5611497, -0.2467583, 0.4498310, -0.7650429, -0.3832670, 0.5680189, -0.1077650, 0.2558194, 0.8871107, -0.8232781, 0.9850040, 0.0833590, -0.0609678, -0.6583741, -0.1858924, 0.3893056, -0.1308652, -0.2415657, -1.0061810, 0.1654086, -0.6442042, -0.0588524, -1.0906873, 0.8378050, -0.3234144, 0.0852654, 1.3749496, 0.0586093, 0.0932402, -0.3160374, -0.1216567, 0.1202480, -0.4658394, -0.0790298, -1.2620684, 0.2689371, -0.1838725, 0.1523651, -1.0315852, 0.0984273, -0.1196391, 0.2819805, -0.4266332, 0.1877427, -0.4306384, 0.2347483},
    {-0.5267988, -0.3035654, -0.4071379, -0.0309161, -0.1691047, -0.2452728, 0.3175719, -0.0086206, -0.0898719, -1.3866031, -0.6153241, 0.3594283, 0.5346006, 0.2645471, -1.1498301, 0.6083515, 0.2958989, 0.3321496, 0.9896090, -0.0924809, -0.0453623, 0.1075535, 0.0629540, -0.1985094, -0.0928016, -0.6907014, 1.0647600, 0.3505386, -0.1608762, 0.0980627, 0.4748527, -0.1238597, -0.2486690, -0.7450865, 0.5048297, -0.4423904, 0.2629620, -0.6138272, 0.0121759, -0.0559572, 0.1319935, 0.4447230, 1.0656377, 0.3012852, -0.8938239, -0.0930837, 0.0383536, 0.5706536, 1.5969498, 2.0469334, -0.0844872, -0.1506577, -0.2882716, -0.4811892, 1.0694128, -0.1755722, 1.5056252, 0.5044795, -0.1585579, 0.1033867, 0.4383306, 0.1978945, 0.0211198, 0.2061521},
    {-0.0741726, 0.4849505, -1.0665669, -0.0088947, 0.2039905, 0.6652012, 0.4364575, 0.3450052, -0.1256867, -0.1713621, -0.3875472, 0.5628814, 0.3000833, 0.2369020, -0.7393528, -0.7807351, 0.5106416, 0.3250083, 0.3893569, -0.6157050, 0.1070025, 0.0022362, 0.3901047, -0.0320528, -0.4396425, 0.0546325, 0.3335367, -0.0352987, -0.0224165, 0.6806709, -0.0726450, 0.1398513, 0.2656317, 0.5034382, -0.2814119, -0.4137747, -0.0437599, 0.5193933, 0.3615507, 0.1565238, -0.3989609, -0.2598653, -0.6381880, -0.3365230, 0.4239784, 0.2372401, -0.9890037, -0.1452580, -0.2504384, -0.4413270, 0.8087921, 0.2848883, -0.5361548, -0.0183933, -0.4754107, 0.2881320, 0.4078476, -0.1001563, -0.0567365, -0.4954312, 0.4276559, -0.5607534, 0.1308178, 0.4005289},
    {0.5187578, -0.6833581, 0.8210280, -0.5616875, -0.2570977, 0.6764615, -0.5024292, 0.1134317, -1.5001767, -0.5348142, 0.5940304, 0.8115018, -0.0722280, 1.5897632, 0.2251774, 0.5253704, -0.0755054, -0.4589163, 0.3387237, -0.3309176, 1.4228275, 0.3176034, -0.2591854, 1.7442015, 1.4680685, -0.5765232, 0.8821879, 0.9339834, -0.8604297, 0.1631451, 0.3229799, 0.4504796, 1.1504372, -0.4108391, -0.3832820, 0.4964270, 0.5436935, -0.5856046, 0.2179134, 1.0088906, 1.0181043, -0.7641805, 0.3577992, -0.1242748, 0.0691241, 0.9203208, 0.1076073, 0.3408585, 0.1322123, 0.4050093, 0.2663807, -1.4140345, 0.4102775, -0.2902099, -1.1626831, 1.8075819, 0.2696642, 0.7963578, -0.0358972, 1.4968385, -0.1249567, -0.6824794, 0.9342994, -0.4659180},
    {1.7339803, 1.9814851, 1.4126867, -0.9528064, 0.3257170, 0.5661397, -0.4435514, 1.2526814, -1.3394681, 0.2877627, -0.2712831, 0.5619165, -1.1801683, 1.2077856, -0.3892832, -0.1830053, 0.9553311, 0.2195720, -1.3781571, 0.7351077, -3.0390959, 0.0563227, 0.3886243, 2.2489271, 1.7752868, -0.1053686, 3.4594254, 1.7187494, -0.3805012, -1.0044335, 0.2740859, 0.1220332, 1.4648894, 0.0665139, -1.3088523, 1.3567160, 0.5367835, 0.6161264, -2.3847051, 1.2608936, 0.1746555, -0.6238458, 1.0509309, 0.3801352, -1.1856925, 2.3470759, -0.7782886, 1.5291966, 0.4912914, 2.3508875, -0.9661595, 1.7806020, 0.8489506, 1.2612848, 1.6733533, 1.6671246, 0.0431964, 1.9572810, -0.7218818, -1.8189878, 0.7684255, -0.9326375, 0.9579164, 0.8469324},
    {-0.0132150, 0.1792844, 0.0991152, -0.1060263, -0.2555923, 0.0721622, 0.4131790, -0.4257684, -0.1311940, 0.1188622, -0.5991424, 0.1032330, -0.1814890, 0.1214289, 0.3751882, -0.2120165, 0.1292851, -0.2640097, 0.1835318, 0.1519776, -0.0304572, 0.3312415, 0.1339630, -0.1093092, -0.1369831, -0.2755653, 0.0816672, 0.0923943, 0.1830322, 0.2016032, 0.0069168, 0.2109402, -0.2318980, -0.0500641, -0.0961075, -0.1331823, -0.0741172, 0.2130976, -0.1119990, -0.1460708, -0.0034000, 0.1521526, 0.0937585, 0.1632120, 0.1371733, 0.0063752, 0.1189509, -0.2792534, -0.0073101, -0.1303449, 0.0972657, 0.2419715, 0.0081960, 0.2974331, -0.1369638, -0.0421787, -0.2211421, -0.0204712, -0.2350735, -0.0094059, -0.2126050, 0.0602053, -0.0831243, 0.2742250},
    {0.8742198, 1.2583768, 0.6135848, -0.3662019, -0.0892854, 0.1876394, -0.2656609, 0.0474734, -0.3736156, 0.2184990, -0.5556274, -0.2520960, -0.9482088, 0.5106465, -0.1251086, -0.8605608, 0.7123302, -0.4698700, -0.6097479, 0.1247185, -1.9474503, -1.1027435, 0.3137417, 0.7161486, 0.6249949, 0.2442078, 1.9148055, 0.9076322, -0.0949418, -0.5932854, 0.5155695, -0.1102809, 0.5663621, 0.5555439, -0.1287964, 0.6395126, 0.1691108, 0.9206522, -1.8921162, 0.5747678, -0.1104897, 0.2149709, 0.2422053, 0.9332920, 0.4438022, 0.5340512, -0.2618413, 0.5141050, 1.4482851, 0.5210549, -0.3494019, 1.1244247, -0.0767162, 0.4154612, 0.3340863, 0.6021397, -0.3132890, 0.8970107, -0.2033023, -0.8180423, 0.6557638, 0.0226674, 0.2902443, 0.6718213},
    {0.2416095, -0.1560449, 0.1822764, 0.3655081, 0.4121857, 0.4871915, -0.0366942, 0.1852873, 0.7632738, 0.2777998, 0.6317515, 0.3135229, -0.1708343, 0.0449135, 0.0040030, -0.0711540, -0.2052074, 0.2358818, -0.1232327, -0.4023126, -0.2474237, 0.5575442, -0.6288881, 0.1037688, -0.2468402, 0.0252318, -0.5403340, -0.5491083, 0.3543153, -0.4422985, -0.0756066, 0.0635310, -0.3629575, 0.2802876, 0.6598956, -0.0471860, 0.5576948, 0.4971848, 0.0747675, -0.0485197, -0.3891787, -0.3086729, 0.0739542, -0.2720117, -0.5091970, -0.7425526, 0.1168042, 0.3193154, -0.0252906, -0.2616032, -0.2047202, 0.4233097, 0.5652041, 0.1919640, 0.0553169, -0.5820009, 0.1383888, -0.1469572, -0.1718601, -0.2550659, 0.1662650, 0.0723714, -0.7586824, -0.0910103},
    {-1.4756341, -1.3416365, -1.0534855, 0.9910334, 0.1889269, -0.3582058, 0.2905809, -0.8688348, 1.9388595, -0.2537075, -0.3701878, -0.4736936, 0.3898610, -1.4702642, -0.0220486, 0.7227562, -0.6130390, 0.3930185, 1.0862962, -0.0839501, 1.6609716, 0.5676949, -0.5865146, -2.4209886, -0.7820398, 0.1572629, -2.6414390, -2.5261588, -0.0709134, 0.8186904, -0.1716526, 0.1903568, -0.6619637, -0.2593077, 0.2993528, -1.5360395, -0.3023314, -0.8932493, 1.0585361, -1.7232128, -0.0284046, 0.9233663, -0.1931097, -0.6106904, 0.5967726, -2.6160941, 0.3744395, -0.2434652, 0.3158839, -2.2317231, -0.1394301, -1.9217736, -0.9161959, -0.3614507, -2.2909636, -1.7070128, 0.1384964, -2.3268564, 0.3759425, 1.9380070, -1.2718346, 0.4385733, -0.4328280, -0.2972198},
    {-0.2559261, -1.4333457, -0.1670423, -0.1367592, 0.0040778, 0.3122238, 0.1250364, 0.7201164, 0.2121352, 0.4861090, 1.1056763, -0.2194290, 0.0745727, 0.5182750, -0.3982768, 0.5679511, -0.1467292, -0.1184617, -0.0324544, -0.0174278, 0.8495593, -0.3817585, -0.0268609, -0.0108587, -0.0296006, 0.2016353, -0.9433877, -0.8929611, -0.3324381, 0.2432832, -0.6148896, 0.2762348, 0.4028464, -0.1870124, 0.3241616, -0.6636997, 0.6403869, -0.8564584, 1.0818138, 0.0283869, -0.0511854, -0.2334489, 0.1919064, -0.4977253, -0.4698300, -0.2727569, -0.0912813, 0.0955640, -0.3962542, -0.1404112, 0.3883578, -0.4400740, 0.4330918, -0.0742698, -0.2173066, -0.5163267, -0.0238630, -0.4154848, 0.2849288, 1.0620412, -0.3062964, -0.4010186, -0.0709877, -0.4678559},
    {0.8187501, -0.0123821, 0.1558515, 0.2374282, 0.9196891, -0.3679853, 0.4372911, 1.0132712, -0.6922094, 0.3330794, -0.1015040, -0.0320481, 0.5614754, -1.2008009, 0.4331582, -0.1853607, 1.0414433, 1.2408328, -0.8424256, -0.9373374, -0.1813264, 0.4199042, 0.0745689, -1.8504748, -0.5928484, 0.7554494, 0.3640361, 0.9505334, 0.5340047, -0.5181073, -0.7033749, 0.1814054, -0.6661972, 0.3685197, 0.3347637, 0.5493787, 0.8161824, 0.5753686, 0.4331624, 1.8948048, 0.8067876, -0.2449952, -0.4105957, 0.2420918, -0.7931920, 0.1947645, -0.5831838, -0.0924853, 0.1378506, -0.5079435, -0.2452713, 0.0031886, 0.3647009, 0.6229986, -1.1451919, -1.4989098, -0.1733103, -0.0672026, -1.1070042, 0.4058543, -0.1390640, -1.1219890, -0.3437212, 0.4223654},
    {0.0998257, -0.4226704, -0.8949782, -1.1820875, -0.3233967, -0.7443818, 1.0302578, 0.3753281, -1.2358143, -1.1139845, 0.0966881, -1.2410991, -0.6255017, 0.3429367, -0.7928842, 0.3465856, -0.2932705, 0.4929879, -0.9761088, 1.3410583, -0.8445319, -0.2862169, 1.2633883, 0.7570354, 0.1272968, 0.0212582, 0.9482780, 0.6539200, 0.7442926, 0.2200231, 0.2786735, 0.4883610, -0.4799831, -0.7678376, -0.3107045, 0.4331831, 0.1703860, 0.5500604, -0.6019882, 0.9510781, -0.9668455, 1.5426341, -0.4609579, 0.5444291, -0.0809540, 0.6455377, -0.9366470, -1.3068727, -0.3672632, 0.6454032, 0.2301653, 0.6324031, 0.7495642, -0.8525872, 0.0914774, 0.2156040, -0.2514945, 0.4587421, -1.1164305, 0.2274197, 0.0734315, -1.4730229, 0.6551975, -0.4065257},
    {-0.0379697, 0.3983877, 0.1146117, -0.5062612, 0.0998987, 0.2715546, -0.5626707, 0.8553634, -1.9835080, 0.5910803, -0.9121194, 0.7006580, -0.8515977, 1.2357974, 0.4242366, -0.4916141, 0.2353085, -0.9836947, -0.2603374, -0.4037296, -1.2136149, -0.4211870, -0.4121235, 0.9757564, 1.0051432, -0.3852969, 2.1392870, 1.6935608, -0.5643857, -0.2553020, -0.0671072, 0.9025682, 0.9228620, 0.0823368, -0.3948458, 0.9095069, -0.1924631, 0.2738991, -0.8005747, 0.4262951, 0.1774186, -0.1787014, 0.9554638, 0.1910153, -0.3734959, 1.5543224, -0.1161868, 0.1878906, 0.5520941, 1.7217947, -0.3567511, 0.1448421, -0.1348874, 0.3227848, 0.8760511, 1.3196251, 0.2434629, 1.0029910, -0.3164553, -0.7406490, 0.2353640, -0.6848774, 0.4423266, 0.2314190},
    {-0.5052060, 0.2988693, 0.9719617, 0.1050665, 0.3212808, 0.4064809, -0.6537205, 0.2806826, 0.5025186, 0.2720809, 0.3870744, -0.5398770, -0.3190896, -0.5014797, -0.5781415, -0.4337606, 0.1220642, 0.6636720, 0.0781265, -0.9823289, -0.6686064, -0.0498438, -1.2836629, -0.2734437, -0.2904073, 0.1699319, -0.6571426, -0.6449938, -0.1566230, -0.4230750, 0.0515279, -0.2736053, 0.3392410, 1.0668861, 0.4622460, 0.0305926, 0.6180435, -0.5613632, -0.4759440, 0.2315081, 0.4571862, -0.0652127, 0.3224965, -0.0647389, -0.3167868, -0.6458865, -0.3319188, 0.4652717, -0.3363416, -0.7506876, -0.5643355, 0.6446186, -0.2858684, 0.4730303, -0.4049617, -0.4292098, 0.3742183, -0.5538293, 0.0037601, -0.1812701, -0.1051853, -0.1101649, -0.6513644, 0.0408666},
    {2.7400429, -0.7311558, 0.1130089, 0.0253989, 0.1730478, 0.1007716, -0.1246741, 1.1279267, -0.2572056, -0.1609533, -0.6950583, 1.0443399, 0.3861117, 0.7417632, -0.2611423, 0.4547652, 1.1300759, 0.6580749, -1.4292469, -0.2288955, 0.7652963, -0.5213788, -0.1611211, 0.1306712, 0.8902525, 0.2761496, -0.3157828, 1.6813562, -0.2775315, -0.3565933, -0.5009308, 0.6759760, 1.0977786, -0.2870644, -0.3702289, 0.6082817, 0.2880036, 0.1605988, -0.3471263, 0.6932359, 0.6832069, -0.4978710, 0.9043122, -0.5067213, -0.6693168, 0.1552815, -0.1446268, -0.9158952, 1.0992445, 0.5250455, 1.8695087, -0.2586329, 0.1337794, -0.0968562, 0.5666661, 0.3784381, -0.2544816, 0.4624766, 0.0032651, 0.6334221, 0.1587310, -1.0050644, 0.0112597, -0.7354413},
    {0.2131904, -0.0331591, -0.6818244, -0.3170421, -0.4668862, 0.2310531, -0.0514197, -0.5122386, -1.0199897, 0.6235000, -0.2800437, 0.2450642, -0.0887788, 0.7889309, 0.6218086, 0.1768917, -0.4626311, -0.6007936, 0.1625317, 0.4554323, 0.6985265, -0.6129764, 0.6492851, 0.2641425, 0.0105056, -0.5822378, -0.3275664, 0.7729052, 0.1893174, 0.4241970, -0.1069248, 0.9828314, -0.5948417, -0.5173507, -0.1612526, -0.3262150, -0.6156349, -0.1113317, 0.9342182, -0.5639035, 0.1264560, 0.8435093, 0.4524142, 0.2053197, -1.0483419, 0.6526958, 0.6430855, -0.4152304, -0.3987685, -0.1640762, 0.3116329, -0.2896283, 1.2766727, -0.8218682, 0.3624753, 0.1973495, 0.0225404, -0.1158706, 0.0995483, -0.0071461, 0.2368594, -0.5598707, 1.0567367, 0.0072680}
};
